<Root>
  <ActivationFunctions>
    <Fn id="0" name="SteepenedSigmoid" prob="1" />
  </ActivationFunctions>
  <Networks>
    <Network id="38925" birthGen="969" fitness="0.64814814814814814">
      <Nodes>
        <Node type="bias" id="0" />
        <Node type="in" id="1" />
        <Node type="in" id="2" />
        <Node type="in" id="3" />
        <Node type="in" id="4" />
        <Node type="in" id="5" />
        <Node type="in" id="6" />
        <Node type="in" id="7" />
        <Node type="out" id="8" />
        <Node type="out" id="9" />
        <Node type="out" id="10" />
        <Node type="out" id="11" />
        <Node type="out" id="12" />
        <Node type="out" id="13" />
        <Node type="hid" id="148" />
        <Node type="hid" id="156" />
        <Node type="hid" id="194" />
      </Nodes>
      <Connections>
        <Con id="47" src="5" tgt="11" wght="-1.6367826068257017" />
        <Con id="51" src="6" tgt="9" wght="4.4480972227495386" />
        <Con id="65" src="7" tgt="9" wght="4.88258098769098" />
        <Con id="77" src="12" tgt="11" wght="3.2249567518423521" />
        <Con id="79" src="0" tgt="12" wght="-1.2943207553912512" />
        <Con id="90" src="9" tgt="12" wght="3.12781087855307" />
        <Con id="125" src="6" tgt="12" wght="3.0924427785560682" />
        <Con id="150" src="148" tgt="11" wght="2.3386521663660074" />
        <Con id="157" src="3" tgt="156" wght="1.589490621616334" />
        <Con id="158" src="156" tgt="148" wght="3.9513877092412919" />
        <Con id="163" src="8" tgt="8" wght="0.46468822072946137" />
        <Con id="165" src="2" tgt="148" wght="1.9150679777044868" />
        <Con id="188" src="9" tgt="9" wght="3.9829301880214354" />
        <Con id="193" src="6" tgt="156" wght="0.76908681945649138" />
        <Con id="195" src="9" tgt="194" wght="-4.3566309606495732" />
        <Con id="196" src="194" tgt="148" wght="1.0490532367260963" />
        <Con id="216" src="3" tgt="194" wght="-4.6558585228559117" />
        <Con id="226" src="0" tgt="156" wght="-3.5085199055047602" />
        <Con id="234" src="4" tgt="148" wght="-2.1345469766350798" />
        <Con id="235" src="12" tgt="9" wght="1.7230080940481756" />
        <Con id="247" src="8" tgt="12" wght="1.410911874845624" />
      </Connections>
    </Network>
  </Networks>
</Root>