<Root>
  <ActivationFunctions>
    <Fn id="0" name="SteepenedSigmoid" prob="1" />
  </ActivationFunctions>
  <Networks>
    <Network id="68724" birthGen="1714" fitness="0.61823361823361822">
      <Nodes>
        <Node type="bias" id="0" />
        <Node type="in" id="1" />
        <Node type="in" id="2" />
        <Node type="in" id="3" />
        <Node type="in" id="4" />
        <Node type="in" id="5" />
        <Node type="in" id="6" />
        <Node type="in" id="7" />
        <Node type="out" id="8" />
        <Node type="out" id="9" />
        <Node type="out" id="10" />
        <Node type="out" id="11" />
        <Node type="out" id="12" />
        <Node type="out" id="13" />
        <Node type="hid" id="148" />
        <Node type="hid" id="156" />
        <Node type="hid" id="194" />
      </Nodes>
      <Connections>
        <Con id="47" src="5" tgt="11" wght="4.9783650188553779" />
        <Con id="51" src="6" tgt="9" wght="5" />
        <Con id="65" src="7" tgt="9" wght="1.6236028257311292" />
        <Con id="74" src="12" tgt="12" wght="-0.70880547756960188" />
        <Con id="77" src="12" tgt="11" wght="3.5864808250157174" />
        <Con id="90" src="9" tgt="12" wght="1.3937768617247071" />
        <Con id="125" src="6" tgt="12" wght="3.5711779895433087" />
        <Con id="150" src="148" tgt="11" wght="2.2958343529367635" />
        <Con id="157" src="3" tgt="156" wght="3.4738499256483042" />
        <Con id="158" src="156" tgt="148" wght="3.130998111619129" />
        <Con id="163" src="8" tgt="8" wght="0.44861497776304859" />
        <Con id="165" src="2" tgt="148" wght="-3.2497049922551779" />
        <Con id="180" src="9" tgt="156" wght="4.3057802863422747" />
        <Con id="193" src="6" tgt="156" wght="2.4072814804114855" />
        <Con id="195" src="9" tgt="194" wght="-3.9082428588232454" />
        <Con id="196" src="194" tgt="148" wght="-1.7895648092410039" />
        <Con id="210" src="6" tgt="194" wght="-0.70801817758250052" />
        <Con id="215" src="8" tgt="156" wght="1.6355518577620387" />
        <Con id="216" src="3" tgt="194" wght="4.1754889713674688" />
        <Con id="226" src="0" tgt="156" wght="-0.16240224753660437" />
        <Con id="240" src="148" tgt="194" wght="-1.601535957734507" />
        <Con id="242" src="194" tgt="8" wght="1.7057648336074551" />
        <Con id="246" src="7" tgt="156" wght="-2.6450985152736188" />
        <Con id="283" src="8" tgt="11" wght="1.0185062805400222" />
        <Con id="300" src="7" tgt="148" wght="0.59861568826337808" />
      </Connections>
    </Network>
  </Networks>
</Root>