<Root>
  <ActivationFunctions>
    <Fn id="0" name="SteepenedSigmoid" prob="1" />
  </ActivationFunctions>
  <Networks>
    <Network id="9233" birthGen="226" fitness="1">
      <Nodes>
        <Node type="bias" id="0" />
        <Node type="in" id="1" />
        <Node type="in" id="2" />
        <Node type="in" id="3" />
        <Node type="in" id="4" />
        <Node type="in" id="5" />
        <Node type="in" id="6" />
        <Node type="in" id="7" />
        <Node type="in" id="8" />
        <Node type="in" id="9" />
        <Node type="out" id="10" />
        <Node type="out" id="11" />
        <Node type="out" id="12" />
        <Node type="out" id="13" />
        <Node type="out" id="14" />
        <Node type="out" id="15" />
        <Node type="hid" id="103" />
      </Nodes>
      <Connections>
        <Con id="43" src="4" tgt="13" wght="0.004327219584870548" />
        <Con id="69" src="8" tgt="15" wght="-2.442904491465193" />
        <Con id="76" src="15" tgt="11" wght="1.3699461213942827" />
        <Con id="85" src="14" tgt="14" wght="3.625723026054263" />
        <Con id="98" src="11" tgt="11" wght="5" />
        <Con id="104" src="4" tgt="103" wght="-2.5036209462416013" />
        <Con id="105" src="103" tgt="14" wght="1.9254587699991568" />
        <Con id="112" src="9" tgt="10" wght="1.4940113748341966" />
        <Con id="118" src="6" tgt="15" wght="0.45076915061601924" />
        <Con id="123" src="9" tgt="15" wght="2.7279764972627163" />
      </Connections>
    </Network>
  </Networks>
</Root>