<Root>
  <ActivationFunctions>
    <Fn id="0" name="SteepenedSigmoid" prob="1" />
  </ActivationFunctions>
  <Networks>
    <Network id="6062" birthGen="150" fitness="0.9625">
      <Nodes>
        <Node type="bias" id="0" />
        <Node type="in" id="1" />
        <Node type="in" id="2" />
        <Node type="in" id="3" />
        <Node type="in" id="4" />
        <Node type="in" id="5" />
        <Node type="in" id="6" />
        <Node type="in" id="7" />
        <Node type="in" id="8" />
        <Node type="in" id="9" />
        <Node type="out" id="10" />
        <Node type="out" id="11" />
        <Node type="out" id="12" />
        <Node type="out" id="13" />
        <Node type="out" id="14" />
        <Node type="out" id="15" />
        <Node type="hid" id="84" />
      </Nodes>
      <Connections>
        <Con id="49" src="5" tgt="13" wght="0.086514790728759061" />
        <Con id="61" src="7" tgt="13" wght="-1.550016259985054" />
        <Con id="77" src="14" tgt="14" wght="-0.36216820279277528" />
        <Con id="83" src="1" tgt="13" wght="-1.2049374293606343" />
        <Con id="85" src="3" tgt="84" wght="-0.99189858883619308" />
        <Con id="86" src="84" tgt="11" wght="0.1225498000759019" />
        <Con id="122" src="2" tgt="10" wght="-0.16035405333464967" />
      </Connections>
    </Network>
  </Networks>
</Root>