<Root>
  <ActivationFunctions>
    <Fn id="0" name="SteepenedSigmoid" prob="1" />
  </ActivationFunctions>
  <Networks>
    <Network id="75760" birthGen="1880" fitness="0.75">
      <Nodes>
        <Node type="bias" id="0" />
        <Node type="in" id="1" />
        <Node type="in" id="2" />
        <Node type="in" id="3" />
        <Node type="in" id="4" />
        <Node type="in" id="5" />
        <Node type="in" id="6" />
        <Node type="in" id="7" />
        <Node type="in" id="8" />
        <Node type="in" id="9" />
        <Node type="out" id="10" />
        <Node type="out" id="11" />
        <Node type="out" id="12" />
        <Node type="out" id="13" />
        <Node type="out" id="14" />
        <Node type="out" id="15" />
        <Node type="hid" id="84" />
        <Node type="hid" id="260" />
        <Node type="hid" id="328" />
        <Node type="hid" id="331" />
      </Nodes>
      <Connections>
        <Con id="61" src="7" tgt="13" wght="-0.013979171480688623" />
        <Con id="83" src="1" tgt="13" wght="-0.45635678171701233" />
        <Con id="86" src="84" tgt="11" wght="0.062450943116259323" />
        <Con id="104" src="14" tgt="84" wght="-2.5913641259099012" />
        <Con id="122" src="2" tgt="10" wght="-0.26571560774922004" />
        <Con id="130" src="2" tgt="84" wght="4.07765778600438" />
        <Con id="175" src="15" tgt="84" wght="2.7003091444789362" />
        <Con id="243" src="10" tgt="84" wght="0.15251419540451305" />
        <Con id="261" src="3" tgt="260" wght="2.2779674896959854" />
        <Con id="262" src="260" tgt="84" wght="2.2816957000781564" />
        <Con id="266" src="6" tgt="84" wght="1.2057874669225759" />
        <Con id="271" src="84" tgt="260" wght="-2.3321052309935468" />
        <Con id="307" src="2" tgt="260" wght="5" />
        <Con id="316" src="13" tgt="260" wght="-2.5884048525592696" />
        <Con id="329" src="8" tgt="328" wght="2.9054438485744503" />
        <Con id="332" src="328" tgt="331" wght="-3.2287558115991382" />
        <Con id="333" src="331" tgt="260" wght="-3.1410815855696215" />
        <Con id="334" src="0" tgt="331" wght="1.6249315762039815" />
        <Con id="344" src="0" tgt="328" wght="-1.5612027324377285" />
      </Connections>
    </Network>
  </Networks>
</Root>