<Root>
  <ActivationFunctions>
    <Fn id="0" name="SteepenedSigmoid" prob="1" />
  </ActivationFunctions>
  <Networks>
    <Network id="36009" birthGen="441" fitness="1.5212121212121212">
      <Nodes>
        <Node type="bias" id="0" />
        <Node type="in" id="1" />
        <Node type="in" id="2" />
        <Node type="in" id="3" />
        <Node type="in" id="4" />
        <Node type="in" id="5" />
        <Node type="in" id="6" />
        <Node type="in" id="7" />
        <Node type="in" id="8" />
        <Node type="in" id="9" />
        <Node type="out" id="10" />
        <Node type="out" id="11" />
        <Node type="out" id="12" />
        <Node type="out" id="13" />
        <Node type="out" id="14" />
        <Node type="out" id="15" />
        <Node type="hid" id="111" />
        <Node type="hid" id="169" />
        <Node type="hid" id="271" />
      </Nodes>
      <Connections>
        <Con id="22" src="1" tgt="10" wght="4.2774348270546705" />
        <Con id="49" src="5" tgt="13" wght="2.3372168380853466" />
        <Con id="70" src="9" tgt="10" wght="-3.8701928322467372" />
        <Con id="85" src="13" tgt="13" wght="4.436305129072978" />
        <Con id="105" src="13" tgt="14" wght="-0.039442290434125359" />
        <Con id="112" src="1" tgt="111" wght="-0.43129418335010405" />
        <Con id="113" src="111" tgt="10" wght="2.6125347784908866" />
        <Con id="134" src="9" tgt="14" wght="-0.057243310278498258" />
        <Con id="144" src="0" tgt="10" wght="2.6478233649584091" />
        <Con id="156" src="7" tgt="10" wght="0.1328832795843482" />
        <Con id="165" src="111" tgt="13" wght="0.9960214508610955" />
        <Con id="170" src="2" tgt="169" wght="-0.45873248653148574" />
        <Con id="171" src="169" tgt="13" wght="-0.20591157914638222" />
        <Con id="265" src="5" tgt="111" wght="-3.2426882162690163" />
        <Con id="272" src="15" tgt="271" wght="3.6975454925200966" />
        <Con id="273" src="271" tgt="13" wght="0.44201080221682787" />
        <Con id="276" src="12" tgt="13" wght="3.2846441399306059" />
        <Con id="278" src="0" tgt="111" wght="1.5372238139104977" />
        <Con id="285" src="169" tgt="271" wght="-1.2768539342127845" />
      </Connections>
    </Network>
  </Networks>
</Root>