<Root>
  <ActivationFunctions>
    <Fn id="0" name="SteepenedSigmoid" prob="1" />
  </ActivationFunctions>
  <Networks>
    <Network id="81976" birthGen="1008" fitness="0.61">
      <Nodes>
        <Node type="bias" id="0" />
        <Node type="in" id="1" />
        <Node type="in" id="2" />
        <Node type="in" id="3" />
        <Node type="in" id="4" />
        <Node type="in" id="5" />
        <Node type="in" id="6" />
        <Node type="in" id="7" />
        <Node type="in" id="8" />
        <Node type="in" id="9" />
        <Node type="out" id="10" />
        <Node type="out" id="11" />
        <Node type="out" id="12" />
        <Node type="out" id="13" />
        <Node type="out" id="14" />
        <Node type="out" id="15" />
        <Node type="hid" id="111" />
        <Node type="hid" id="169" />
        <Node type="hid" id="271" />
        <Node type="hid" id="291" />
        <Node type="hid" id="306" />
        <Node type="hid" id="334" />
        <Node type="hid" id="393" />
        <Node type="hid" id="421" />
        <Node type="hid" id="438" />
        <Node type="hid" id="499" />
      </Nodes>
      <Connections>
        <Con id="22" src="1" tgt="10" wght="2.1265549125861165" />
        <Con id="49" src="5" tgt="13" wght="-3.9734591729938984" />
        <Con id="70" src="9" tgt="10" wght="1.4484796347684972" />
        <Con id="76" src="6" tgt="10" wght="-3.8412737807819815" />
        <Con id="77" src="2" tgt="13" wght="3.1990749769216524" />
        <Con id="85" src="13" tgt="13" wght="0.65377145978081086" />
        <Con id="105" src="13" tgt="14" wght="-0.034570887112750713" />
        <Con id="112" src="1" tgt="111" wght="-3.22945024818182" />
        <Con id="134" src="9" tgt="14" wght="-0.0437542696025139" />
        <Con id="139" src="5" tgt="10" wght="-0.13865549117326736" />
        <Con id="144" src="0" tgt="10" wght="2.7576337718470985" />
        <Con id="156" src="7" tgt="10" wght="-3.0629304749891162" />
        <Con id="171" src="169" tgt="13" wght="-1.5090119140222669" />
        <Con id="189" src="10" tgt="13" wght="3.0224610758625996" />
        <Con id="272" src="15" tgt="271" wght="3.249535076161139" />
        <Con id="293" src="291" tgt="13" wght="-1.4731686483104614" />
        <Con id="307" src="2" tgt="306" wght="-2.5221851342381667" />
        <Con id="308" src="306" tgt="169" wght="0.022385958824096108" />
        <Con id="329" src="12" tgt="291" wght="-2.5466011421479262" />
        <Con id="336" src="334" tgt="10" wght="2.9393797230063976" />
        <Con id="384" src="15" tgt="334" wght="2.3839645364650162" />
        <Con id="395" src="393" tgt="291" wght="-4.576528837598036" />
        <Con id="423" src="421" tgt="393" wght="0.47325127758085728" />
        <Con id="425" src="291" tgt="271" wght="-3.706762444289915" />
        <Con id="439" src="5" tgt="438" wght="-2.2995279398848472" />
        <Con id="440" src="438" tgt="291" wght="2.8918704408108962" />
        <Con id="441" src="13" tgt="438" wght="-1.7924983570904172" />
        <Con id="500" src="2" tgt="499" wght="2.9841928277843932" />
      </Connections>
    </Network>
  </Networks>
</Root>