<Root>
  <ActivationFunctions>
    <Fn id="0" name="SteepenedSigmoid" prob="1" />
  </ActivationFunctions>
  <Networks>
    <Network id="82091" birthGen="1009" fitness="1.48659793814433">
      <Nodes>
        <Node type="bias" id="0" />
        <Node type="in" id="1" />
        <Node type="in" id="2" />
        <Node type="in" id="3" />
        <Node type="in" id="4" />
        <Node type="in" id="5" />
        <Node type="in" id="6" />
        <Node type="in" id="7" />
        <Node type="in" id="8" />
        <Node type="in" id="9" />
        <Node type="out" id="10" />
        <Node type="out" id="11" />
        <Node type="out" id="12" />
        <Node type="out" id="13" />
        <Node type="out" id="14" />
        <Node type="out" id="15" />
        <Node type="hid" id="111" />
        <Node type="hid" id="169" />
        <Node type="hid" id="271" />
        <Node type="hid" id="291" />
        <Node type="hid" id="306" />
        <Node type="hid" id="334" />
        <Node type="hid" id="393" />
        <Node type="hid" id="414" />
        <Node type="hid" id="421" />
        <Node type="hid" id="438" />
        <Node type="hid" id="504" />
      </Nodes>
      <Connections>
        <Con id="22" src="1" tgt="10" wght="-2.9971947976126465" />
        <Con id="49" src="5" tgt="13" wght="3.577134972216097" />
        <Con id="70" src="9" tgt="10" wght="4.9864707193921136" />
        <Con id="76" src="6" tgt="10" wght="2.458412298001349" />
        <Con id="85" src="13" tgt="13" wght="2.6732585113495588" />
        <Con id="104" src="1" tgt="13" wght="0.024850708432495594" />
        <Con id="105" src="13" tgt="14" wght="-0.031439898139353835" />
        <Con id="112" src="1" tgt="111" wght="4.9514478210909676" />
        <Con id="134" src="9" tgt="14" wght="-0.066030146075740065" />
        <Con id="139" src="5" tgt="10" wght="4.9827359660152339" />
        <Con id="144" src="0" tgt="10" wght="2.2374655068284364" />
        <Con id="150" src="4" tgt="13" wght="2.9043121714439786" />
        <Con id="156" src="7" tgt="10" wght="3.2134818601165693" />
        <Con id="172" src="4" tgt="111" wght="-4.2180150467902422" />
        <Con id="189" src="10" tgt="13" wght="2.3233672231796216" />
        <Con id="191" src="0" tgt="169" wght="-0.99817152936517728" />
        <Con id="229" src="15" tgt="169" wght="0.90532795060426" />
        <Con id="272" src="15" tgt="271" wght="1.2816098901974722" />
        <Con id="278" src="0" tgt="111" wght="4.450641767804937" />
        <Con id="293" src="291" tgt="13" wght="-0.79634344824462444" />
        <Con id="307" src="2" tgt="306" wght="2.1565880025912234" />
        <Con id="308" src="306" tgt="169" wght="-4.6353415415822941" />
        <Con id="322" src="6" tgt="306" wght="-3.585372929703484" />
        <Con id="323" src="11" tgt="13" wght="0.86563931329534061" />
        <Con id="329" src="12" tgt="291" wght="-3.7073959719037211" />
        <Con id="333" src="10" tgt="306" wght="0.165135503030329" />
        <Con id="335" src="111" tgt="334" wght="0.92051239415144648" />
        <Con id="336" src="334" tgt="10" wght="3.9263259873296388" />
        <Con id="343" src="11" tgt="111" wght="1.0629710550058957" />
        <Con id="344" src="2" tgt="271" wght="1.8892964603353677" />
        <Con id="367" src="169" tgt="10" wght="-2.5517706316130235" />
        <Con id="384" src="15" tgt="334" wght="1.1852345109817879" />
        <Con id="391" src="5" tgt="291" wght="-3.25289401407807" />
        <Con id="394" src="271" tgt="393" wght="-4.1614625643802468" />
        <Con id="395" src="393" tgt="291" wght="-4.576528837598036" />
        <Con id="412" src="6" tgt="334" wght="0.28345908209881854" />
        <Con id="415" src="10" tgt="414" wght="4.9584952312362578" />
        <Con id="416" src="414" tgt="13" wght="2.2403409296483123" />
        <Con id="422" src="271" tgt="421" wght="3.0057447217404842" />
        <Con id="425" src="291" tgt="271" wght="-3.676564731231672" />
        <Con id="428" src="7" tgt="271" wght="1.9867459151262208" />
        <Con id="432" src="111" tgt="393" wght="5" />
        <Con id="439" src="5" tgt="438" wght="-2.8056731491583653" />
        <Con id="440" src="438" tgt="291" wght="4.2764522973448038" />
        <Con id="441" src="13" tgt="438" wght="1.9502434181049466" />
        <Con id="503" src="7" tgt="169" wght="-1.1325097600421081" />
        <Con id="505" src="5" tgt="504" wght="-2.8855581035763143" />
        <Con id="506" src="504" tgt="438" wght="5" />
      </Connections>
    </Network>
  </Networks>
</Root>