<Root>
  <ActivationFunctions>
    <Fn id="0" name="SteepenedSigmoid" prob="1" />
  </ActivationFunctions>
  <Networks>
    <Network id="82066" birthGen="1009" fitness="1.48659793814433">
      <Nodes>
        <Node type="bias" id="0" />
        <Node type="in" id="1" />
        <Node type="in" id="2" />
        <Node type="in" id="3" />
        <Node type="in" id="4" />
        <Node type="in" id="5" />
        <Node type="in" id="6" />
        <Node type="in" id="7" />
        <Node type="in" id="8" />
        <Node type="in" id="9" />
        <Node type="out" id="10" />
        <Node type="out" id="11" />
        <Node type="out" id="12" />
        <Node type="out" id="13" />
        <Node type="out" id="14" />
        <Node type="out" id="15" />
        <Node type="hid" id="111" />
        <Node type="hid" id="169" />
        <Node type="hid" id="271" />
        <Node type="hid" id="291" />
        <Node type="hid" id="306" />
        <Node type="hid" id="334" />
        <Node type="hid" id="393" />
        <Node type="hid" id="414" />
        <Node type="hid" id="421" />
        <Node type="hid" id="438" />
        <Node type="hid" id="504" />
      </Nodes>
      <Connections>
        <Con id="22" src="1" tgt="10" wght="2.5164680777941135" />
        <Con id="49" src="5" tgt="13" wght="-1.3029260276473522" />
        <Con id="70" src="9" tgt="10" wght="4.9864707193921136" />
        <Con id="76" src="6" tgt="10" wght="-4.97444799393404" />
        <Con id="77" src="2" tgt="13" wght="1.0559859201794914" />
        <Con id="85" src="13" tgt="13" wght="-3.11899991667871" />
        <Con id="104" src="1" tgt="13" wght="0.024850708432495594" />
        <Con id="105" src="13" tgt="14" wght="-0.031439898139353835" />
        <Con id="112" src="1" tgt="111" wght="4.9893402250773322" />
        <Con id="134" src="9" tgt="14" wght="-0.066030146075740065" />
        <Con id="139" src="5" tgt="10" wght="5" />
        <Con id="144" src="0" tgt="10" wght="1.8296140770408993" />
        <Con id="150" src="4" tgt="13" wght="2.9043121714439786" />
        <Con id="156" src="7" tgt="10" wght="3.209998958301425" />
        <Con id="172" src="4" tgt="111" wght="-4.2180150467902422" />
        <Con id="189" src="10" tgt="13" wght="5" />
        <Con id="191" src="0" tgt="169" wght="-0.99817152936517728" />
        <Con id="229" src="15" tgt="169" wght="0.90532795060426" />
        <Con id="272" src="15" tgt="271" wght="4.076572387148353" />
        <Con id="278" src="0" tgt="111" wght="2.8051723431892586" />
        <Con id="293" src="291" tgt="13" wght="-0.79634344824462444" />
        <Con id="307" src="2" tgt="306" wght="2.1565880025912234" />
        <Con id="308" src="306" tgt="169" wght="-4.6353415415822941" />
        <Con id="322" src="6" tgt="306" wght="-4.1151154840867008" />
        <Con id="323" src="11" tgt="13" wght="0.8517694897528012" />
        <Con id="329" src="12" tgt="291" wght="-3.692332012578845" />
        <Con id="333" src="10" tgt="306" wght="0.17489810398919314" />
        <Con id="335" src="111" tgt="334" wght="0.92051239415144648" />
        <Con id="336" src="334" tgt="10" wght="3.9263259873296388" />
        <Con id="343" src="11" tgt="111" wght="1.0629710550058957" />
        <Con id="344" src="2" tgt="271" wght="1.8892964603353677" />
        <Con id="367" src="169" tgt="10" wght="-2.5517706316130235" />
        <Con id="384" src="15" tgt="334" wght="3.6579466713219575" />
        <Con id="391" src="5" tgt="291" wght="-3.25289401407807" />
        <Con id="394" src="271" tgt="393" wght="-4.8361207425784363" />
        <Con id="395" src="393" tgt="291" wght="3.6862691603815163" />
        <Con id="412" src="6" tgt="334" wght="0.28345908209881854" />
        <Con id="415" src="10" tgt="414" wght="4.9894350930646034" />
        <Con id="416" src="414" tgt="13" wght="2.2403409296483123" />
        <Con id="422" src="271" tgt="421" wght="5" />
        <Con id="423" src="421" tgt="393" wght="4.5869364916984523" />
        <Con id="428" src="7" tgt="271" wght="3.4708341879360094" />
        <Con id="432" src="111" tgt="393" wght="5" />
        <Con id="439" src="5" tgt="438" wght="-2.8302181741578467" />
        <Con id="440" src="438" tgt="291" wght="2.918471076229002" />
        <Con id="441" src="13" tgt="438" wght="-1.7770947630114611" />
        <Con id="503" src="7" tgt="169" wght="-1.1325097600421081" />
        <Con id="505" src="5" tgt="504" wght="-2.2678759536061039" />
        <Con id="506" src="504" tgt="438" wght="5" />
      </Connections>
    </Network>
  </Networks>
</Root>